
\data\
ngram 1=481
ngram 2=826
ngram 3=2

\1-grams:
-2.453828	</s>
-99	<s>	-0.01230656
-2.629919	A	-0.01744012
-2.930949	Act	-0.01795016
-1.754858	And	-0.0923691
-2.629919	As	-0.005540898
-2.930949	Banquet	-0.01282266
-2.930949	Beauty	-0.01744013
-2.453828	Beauty,	-0.01075458
-2.930949	Because	-0.006065094
-2.930949	Blind,	-0.01692949
-2.930949	Body	-0.01539397
-1.976707	But	-0.01654397
-2.930949	Charriot	-0.01436727
-2.930949	Chast,	-0.01075458
-2.930949	Cheeks,	-0.01488093
-2.930949	Children	-0.01385301
-2.629919	Clouds	-0.01127252
-2.930949	Commendations,	-0.01795016
-2.930949	Company,	-0.01333814
-2.930949	Couch,	-0.01539397
-2.930949	Counterfeit;	-0.01692949
-2.930949	Curtains,	-0.01795016
-2.930949	Cushion	-0.01795016
-2.930949	Dance	-0.01230656
-2.629919	Deaf	-0.09471271
-2.930949	Dear	-0.01795016
-2.629919	Death	-0.001324413
-2.930949	Did	-0.01795016
-2.930949	Drawn	-0.01590642
-2.930949	Dumb,	-0.01488093
-2.629919	Ear	-0.01590642
-2.629919	Ear,	-0.01436727
-2.930949	Ear;	-0.01795016
-2.453828	Ears	-0.01075458
-2.930949	Ears:	-0.01539397
-2.930949	Either	-0.01795016
-2.930949	Eloquence,	-0.01744013
-2.930949	Eloquent	-0.01795016
-2.453828	Eyes	-0.01641825
-2.930949	Eyes,	-0.006065094
-2.930949	Face	-0.01641826
-2.629919	Fame	-0.0002638642
-2.930949	Fame,	-0.01795016
-2.231979	For	-0.04665169
-2.930949	Fortune,	-0.01023602
-2.930949	God	-0.01282266
-2.930949	Goddess,	-0.01436727
-2.930949	Godhead	-0.01385301
-2.930949	Gods	-0.01282266
-2.328889	Great	-0.01488093
-2.930949	Grief	-0.01539397
-2.930949	Guided	-0.01590642
-2.930949	Heart,	-0.01795016
-2.930949	Heave	-0.01795016
-2.930949	Heaven	-0.01023602
-2.930949	Heaven,	-0.01795016
-2.930949	Hell	-0.01795016
-2.930949	His	-0.01641826
-2.930949	Hopes	-0.01795016
-2.629919	How	0.002398893
-1.726829	I	0.01486235
-2.930949	If	-0.01539397
-2.930949	Imploy	-0.01282266
-2.930949	In	-0.01795016
-2.231979	It	-0.04562621
-2.629919	Let	-0.01333814
-2.930949	Life,	-0.01488093
-2.629919	Like	-0.006588657
-2.328889	Love	-0.01590642
-2.930949	Love.	-0.01641826
-2.453828	Lovers	-0.01641825
-2.930949	Loves	-0.01795016
-2.930949	Maid	-0.01282266
-2.930949	Maid;	-0.01075458
-2.930949	Malice	-0.01795016
-2.930949	Matrimonial	-0.01795016
-2.930949	May	-0.01795016
-2.930949	Melancholy	-0.01795016
-2.930949	Men	-0.01795016
-2.930949	Mistriss	-0.01795016
-2.930949	Musick	-0.01795016
-2.629919	My	-0.01590642
-2.930949	Name	-0.01385301
-2.930949	Names	-0.01795016
-2.930949	Nations.	-0.01692949
-2.930949	No	-0.01795016
-2.930949	Noble	-0.01795016
-2.930949	Nor	-0.01692949
-2.930949	Not	-0.01230656
-2.453828	O	-0.01488093
-2.930949	Of	-0.01692949
-2.328889	Or	-0.05469057
-2.930949	Planet	-0.01795016
-2.930949	Poets	-0.01795016
-2.930949	Prayers	-0.01023602
-2.930949	Sisters,	-0.01436727
-2.930949	Some	-0.01641826
-2.930949	Soul	-0.01795016
-2.930949	Souls	-0.01436727
-2.930949	Speech	-0.01230656
-2.930949	Spight,	-0.01590642
-2.930949	Stage	-0.009197041
-2.930949	Starrs	-0.01385301
-2.930949	Sun	-0.01744013
-2.930949	Sun,	-0.01539397
-2.930949	Sun;	-0.01795016
-2.930949	Sute,	-0.01333814
-2.930949	Sweet	-0.01692949
-2.085851	That	-0.04963478
-2.930949	The	-0.01795016
-2.453828	Then	-0.01692949
-2.930949	This	-0.01795016
-2.629919	Thou	-0.01744012
-2.930949	Throne	-0.01436727
-2.930949	Through	-0.01692949
-2.453828	Thy	-0.01488093
-2.930949	Time	-0.01385301
-2.453828	To	-0.06431191
-2.930949	Tower,	-0.01488093
-2.930949	Unless	-0.01023602
-2.930949	Upon	-0.01127253
-2.930949	Virtuous	-0.01795016
-2.930949	Well,	-0.01023602
-2.629919	Which	-0.01641825
-2.930949	Why	-0.01744013
-2.328889	Wit	0.004004415
-2.629919	Yet	-0.01744012
-2.930949	Your	-0.01795016
-1.889556	a	-0.01178985
-2.930949	about	-0.01795016
-2.930949	absolute	-0.01692949
-2.930949	admire,	-0.01795016
-2.930949	adoration;	-0.01590642
-2.930949	adore,	-0.01744013
-2.930949	after	-0.01641826
-2.930949	age	-0.01385301
-2.930949	ake	-0.01539397
-2.629919	all	-0.005016071
-2.453828	am	-0.002910401
-2.930949	amaz'd,	-0.01795016
-1.930949	and	-0.01075458
-2.930949	answer	-0.01641826
-2.930949	appear	-0.01744013
-2.930949	approve	-0.006065094
-2.629919	are	-0.01075458
-2.231979	as	-0.02941345
-2.930949	at	-0.01692949
-2.930949	attend	-0.01744013
-1.851768	be	-0.007633892
-2.930949	bearing,	-0.01590642
-2.930949	been	-0.01795016
-2.930949	before	-0.01282266
-2.328889	being	-0.009716844
-2.930949	bind	-0.01795016
-2.930949	bless	-0.006065094
-2.930949	blow,	-0.01075458
-2.930949	blush,	-0.01795016
-2.930949	bodyes	-0.01795016
-2.930949	bold	-0.01795016
-2.930949	born	-0.01795016
-2.930949	both	-0.01744013
-2.930949	bow	-0.006065094
-2.930949	brain;	-0.01075458
-2.930949	brazen	-0.01795016
-2.930949	break,	-0.01333814
-2.930949	breed,	-0.01385301
-2.930949	brest;	-0.01075458
-2.930949	busling	-0.01795016
-2.629919	but	-0.007111585
-2.231979	by	-0.01023602
-2.930949	cause,	-0.01075458
-2.930949	censure	-0.01539397
-2.930949	chief	-0.01795016
-2.930949	choice?	-0.01795016
-2.930949	clear	-0.01692949
-2.930949	confident	-0.009197041
-2.930949	crost,	-0.01795016
-2.930949	cruelty,	-0.01795016
-2.930949	dark	-0.01744013
-2.930949	dear	-0.01795016
-2.930949	decide	-0.01127253
-2.930949	defend	-0.01795016
-2.930949	deifi'd,	-0.01795016
-2.930949	delight,	-0.01795016
-2.930949	deny'd,	-0.01744013
-2.930949	desire.	-0.01641826
-2.930949	despis'd,	-0.01385301
-2.930949	destructed	-0.01590642
-2.930949	devour;	-0.01075458
-2.629919	did	-0.01744012
-2.930949	direct	-0.009197041
-2.930949	dishonesty,	-0.01744013
-2.930949	distress;	-0.01744013
-2.930949	disturb'd	-0.01488093
-2.629919	do	-0.01488093
-2.930949	do,	-0.01744013
-2.930949	door,	-0.01744013
-2.629919	doth	-0.01744012
-2.930949	drawn	-0.01795016
-2.328889	each	-0.05366509
-2.629919	else	-0.01539397
-2.930949	entertain	-0.01795016
-2.930949	eternally:	-0.01744013
-2.930949	even	-0.01795016
-2.152798	every	-0.01385301
-2.629919	fair	-0.01641825
-2.930949	fall	-0.01539397
-2.930949	fall,	-0.01590642
-2.930949	fan	-0.01282266
-2.930949	favour	-0.01795016
-2.930949	favour,	-0.01795016
-2.930949	fear	-0.01127253
-2.930949	feast	-0.01641826
-2.930949	feed	-0.01488093
-2.930949	figure	-0.01282266
-2.930949	fill'd	-0.01795016
-2.930949	fire	-0.01385301
-2.930949	fly,	-0.01590642
-2.930949	foot-stool	-0.01436727
-2.231979	for	-0.4008504
-2.930949	forbear,	-0.01795016
-2.930949	foul	-0.01795016
-2.629919	from	-0.01590642
-2.930949	full,	-0.01744013
-2.930949	gaze	-0.01795016
-2.629919	gazing,	-0.009197039
-2.930949	gentle	-0.01795016
-2.930949	giv't	-0.01282266
-2.629919	give	-0.09676854
-2.930949	gives,	-0.01590642
-2.930949	glorious	-0.01795016
-2.930949	glory	-0.01385301
-2.930949	glow:	-0.01795016
-2.930949	good	-0.01795016
-2.930949	got,	-0.01641826
-2.930949	greater	-0.01692949
-2.930949	guide	-0.006065094
-2.930949	had	-0.01023602
-2.930949	hands	-0.01795016
-2.930949	hands,	-0.01590642
-2.629919	hath	-0.0962555
-2.930949	have	-0.01795016
-2.930949	he	-0.01795016
-2.930949	hear:	-0.01488093
-2.930949	hearing	-0.01795016
-2.930949	hears	-0.01488093
-2.328889	heart	-0.01282266
-2.930949	hearts,	-0.01282266
-2.930949	heav'd	-0.01795016
-2.930949	heavy	-0.01744013
-2.930949	help	-0.01539397
-2.930949	here,	-0.01795016
-2.930949	hide.	-0.01795016
-2.930949	highly	-0.01795016
-2.930949	him	-0.01795016
-2.930949	him,	-0.01692949
-2.328889	his	-0.01641826
-2.930949	honour	-0.01795016
-2.453828	if	-0.003964513
-2.930949	ignorance	-0.01641826
-2.930949	immodesty;	-0.01795016
-2.930949	implore,	-0.01488093
-2.930949	implore;	-0.01075458
-1.976707	in	0.01872767
-2.930949	inscrib'd	-0.009197041
-2.930949	instructions	-0.01795016
-2.930949	invite	-0.01282266
-2.629919	is	-0.01385301
-2.453828	it	-0.01692949
-2.930949	its	-0.01795016
-2.930949	joy	-0.01333814
-2.930949	keep	-0.01539397
-2.930949	knee,	-0.01590642
-2.930949	know	-0.01436727
-2.930949	laid,	-0.01590642
-2.629919	large	-0.01744012
-2.930949	laws;	-0.01641826
-2.930949	layes;	-0.01744013
-2.930949	leave	-0.01590642
-2.152798	let	0.01157637
-2.930949	liberty.	-0.01641826
-2.930949	lies,	-0.01590642
-2.930949	life	-0.01641826
-2.930949	light	-0.01795016
-2.453828	light.	-0.01436727
-2.152798	like	-0.03518437
-2.930949	live	-0.01795016
-2.930949	lost,	-0.01590642
-2.930949	love	-0.01795016
-2.930949	ly.	-0.01692949
-2.930949	mad,	-0.01692949
-2.930949	made;	-0.01744013
-2.930949	malicious	-0.01795016
-2.453828	man	-0.01127253
-2.930949	marble	-0.01795016
-2.930949	marriage	-0.01795016
-1.976707	may	-0.005016075
-2.152798	me	-0.02995814
-2.930949	me;	-0.01795016
-2.930949	measure	-0.01795016
-2.930949	memory;	-0.01075458
-2.930949	might	-0.01023602
-2.930949	mind;	-0.01795016
-2.930949	modest	-0.01795016
-2.930949	move,	-0.01075458
-2.930949	murmuring	-0.01795016
-1.550738	my	-0.07474384
-2.930949	neer;	-0.01744013
-2.629919	neither	-0.01744012
-2.930949	night,	-0.01744013
-2.085851	no	-0.01488093
-2.930949	noble	-0.01795016
-2.930949	noise,	-0.01641826
-2.231979	nor	-0.003437771
-2.027859	not	0.008856919
-2.930949	obey,	-0.01385301
-2.930949	observing	-0.01692949
-2.930949	obstruct	-0.006065094
-1.889556	of	-0.002382377
-2.152798	on	0.01817338
-2.930949	on,	-0.01744013
-2.930949	one	-0.01744013
-2.930949	open	-0.01539397
-2.453828	or	-0.01539398
-2.930949	out	-0.01282266
-2.930949	own	-0.01795016
-2.930949	oyld	-0.01488093
-2.930949	part	-0.009197041
-2.629919	passion	-0.01333814
-2.930949	payes.	-0.01795016
-2.930949	person	-0.01744013
-2.930949	person,	-0.01539397
-2.930949	pierc'd	-0.006065094
-2.930949	plac'd;	-0.01692949
-2.930949	place	-0.006065094
-2.930949	plain,	-0.01488093
-2.930949	plead	-0.006065094
-2.930949	pleasant	-0.01692949
-2.930949	praise,	-0.01590642
-2.930949	pray	-0.01795016
-2.930949	pray,	-0.01385301
-2.930949	praysing:	-0.01795016
-2.930949	priz'd;	-0.01795016
-2.930949	prove	-0.01590642
-2.930949	publick	-0.01795016
-2.930949	pure,	-0.01333814
-2.930949	rather	-0.01795016
-2.930949	rebels	-0.01795016
-2.930949	rebound;	-0.01075458
-2.930949	recide.	-0.01744013
-2.930949	repent,	-0.01641826
-2.930949	repose,	-0.01641826
-2.930949	represent,	-0.01385301
-2.930949	rest,	-0.01795016
-2.930949	rising	-0.01795016
-2.930949	rob	-0.01539397
-2.930949	runs	-0.01488093
-2.930949	sake,	-0.01795016
-2.930949	say:	-0.01744013
-2.930949	scape	-0.01692949
-2.930949	see,	-0.01744013
-2.930949	seeming	-0.01539397
-2.930949	seems	-0.01744013
-2.930949	seeth	-0.01488093
-2.930949	sense	-0.01230656
-2.930949	set,	-0.01795016
-2.453828	several	-0.01590642
-2.930949	shadow	-0.01539397
-2.027859	shall	-0.02239705
-2.930949	shapt	-0.01795016
-2.930949	shine	-0.01385301
-2.629919	should	-0.00971684
-2.930949	shun	-0.01127253
-2.930949	sighs,	-0.01539397
-2.930949	sight	-0.01795016
-2.930949	sight;	-0.01590642
-2.930949	sixt,	-0.01590642
-2.930949	slrung,	-0.01075458
-2.629919	so	-0.01744012
-2.930949	so,	-0.01590642
-2.930949	soft,	-0.01488093
-2.930949	solemn,	-0.01333814
-2.930949	solid	-0.01795016
-2.453828	some	-0.01692949
-2.930949	sound,	-0.01795016
-2.930949	spake,	-0.01641826
-2.930949	spangled	-0.01795016
-2.930949	speak	-0.01127253
-2.629919	spight,	-0.01230656
-2.930949	spight.	-0.01590642
-2.930949	spotless,	-0.01795016
-2.930949	stand,	-0.01333814
-2.930949	stay,	-0.01488093
-2.930949	streams,	-0.01795016
-2.930949	strife.	-0.01075458
-2.930949	strong	-0.01795016
-2.930949	stuck	-0.01488093
-2.930949	subject	-0.009197041
-2.930949	substance,	-0.01744013
-2.930949	succeed.	-0.01692949
-2.930949	superstitiously,	-0.01023602
-2.930949	sure	-0.01641826
-2.930949	sweet	-0.01641826
-2.930949	takes	-0.01795016
-2.930949	tax	-0.01539397
-2.629919	taxes	-0.01744012
-2.629919	tears	-0.01230656
-2.085851	that	-0.003437775
-1.784821	the	-0.009716845
-2.629919	thee	-0.003437775
-2.930949	thee,	-0.01488093
-2.328889	their	-0.05469057
-2.629919	then	-0.01590642
-2.930949	these	-0.01795016
-2.930949	they	-0.01692949
-2.930949	think	-0.01023602
-2.453828	this	-0.01692949
-2.930949	those	-0.01744013
-2.453828	thou	-0.06534471
-2.930949	thoughts,	-0.01539397
-2.629919	through	-0.005540898
-1.889556	thy	-0.01282265
-2.930949	till	-0.01539397
-2.930949	time	-0.01744013
-1.675677	to	-0.01707522
-2.930949	tongue	-0.009197041
-2.930949	tongue,	-0.01744013
-2.930949	tongues,	-0.01488093
-2.930949	tormenting	-0.01795016
-2.930949	toyes:	-0.01385301
-2.930949	triumph	-0.01795016
-2.930949	trouble	-0.01795016
-2.930949	trumpet	-0.01795016
-2.930949	truth	-0.01282266
-2.930949	tun'd	-0.009197041
-2.930949	two	-0.01692949
-2.930949	unlucky	-0.01795016
-2.930949	unto	-0.01127253
-2.930949	up	-0.006065094
-2.930949	up,	-0.01590642
-2.930949	upon	-0.01744013
-2.930949	use	-0.01436727
-2.930949	valour,	-0.01539397
-2.930949	various	-0.01795016
-2.930949	view	-0.006065094
-2.930949	voice●	-0.01692949
-2.930949	want	-0.01282266
-2.629919	was	-0.01744012
-2.930949	weary	-0.01539397
-2.930949	weep,	-0.01692949
-2.930949	well	-0.01795016
-2.453828	were	-0.004490611
-2.152798	when	-0.002910399
-2.930949	where	-0.01744013
-2.930949	which	-0.006065094
-2.930949	whispering	-0.01795016
-2.930949	why	-0.01744013
-2.930949	wife,	-0.01795016
-2.328889	will	-0.01641826
-2.629919	wilt	-0.01744012
-2.930949	winds	-0.01436727
-2.930949	wise:	-0.01590642
-2.930949	wishes	-0.01436727
-2.085851	with	-0.01333814
-2.930949	withall;	-0.01590642
-2.629919	woo	-0.01641825
-2.930949	woo!	-0.01692949
-2.930949	woo'd,	-0.01692949
-2.930949	wooing	-0.01795016
-2.629919	word	-0.005540899
-2.629919	words	-0.009197038
-2.930949	words,	-0.01795016
-2.930949	worship'd,	-0.01539397
-2.930949	worthy	-0.01692949
-2.930949	write	-0.01692949
-2.453828	yet	-0.01590642
-2.152798	you	-0.009197038
-2.629919	you,	-0.01333814
-2.930949	you.	-0.01641826
-2.328889	your	-0.01641826

\2-grams:
-1.85788	<s> A
-1.85788	<s> But
-1.85788	<s> Why
-1.681789	A Banquet
-1.681789	A Cushion
-1.380759	Act pray
-2.55685	And Lovers
-2.55685	And being
-2.55685	And fan
-2.55685	And for
-2.55685	And gentle
-0.69897	And let
-2.55685	And on
-2.55685	And oyld
-2.55685	And place
-2.55685	And that
-2.55685	And then
-2.55685	And when
-2.55685	And write
-1.681789	As my
-1.681789	As seeming
-1.380759	Banquet of
-1.380759	Beauty doth
-1.85788	Beauty, for
-1.85788	Beauty, that
-1.85788	Beauty, thou
-1.380759	Because my
-1.380759	Blind, Then
-1.380759	Body you
-2.335002	But I
-2.335002	But O
-2.335002	But after
-2.335002	But am
-2.335002	But being
-2.335002	But give
-1.340679	But let
-2.335002	But rather
-1.380759	Charriot shall
-1.380759	Chast, And
-1.380759	Cheeks, that
-1.380759	Children may
-1.681789	Clouds of
-1.681789	Clouds were
-1.380759	Commendations, Guided
-1.380759	Company, and
-1.380759	Couch, when
-1.380759	Counterfeit; Thy
-1.380759	Curtains, drawn
-1.380759	Cushion soft,
-1.380759	Dance be
-0.6874664	Deaf and
-1.380759	Dear Mistriss
-1.681789	Death may
-1.681789	Death my
-1.380759	Did view
-1.380759	Drawn by
-1.380759	Dumb, That
-1.681789	Ear each
-1.681789	Ear feed
-1.681789	Ear, Some
-1.681789	Ear, That
-1.380759	Ear; Men
-1.85788	Ears be
-1.85788	Ears from
-1.85788	Ears they
-1.380759	Ears: let
-1.380759	Either bind
-1.380759	Eloquence, so
-1.380759	Eloquent tongues,
-1.85788	Eyes all
-1.85788	Eyes rebound;
-1.85788	Eyes repose,
-1.380759	Eyes, my
-1.380759	Face will
-1.681789	Fame my
-1.681789	Fame of
-1.380759	Fame, about
-2.079729	For fear
-1.085406	For thee
-2.079729	For want
-2.079729	For which
-1.380759	Fortune, I
-1.380759	God of
-1.380759	Goddess, shall
-1.380759	Godhead in
-1.380759	Gods of
-1.982819	Great Fame
-1.982819	Great Fortune,
-1.982819	Great Imploy
-1.982819	Great To
-1.380759	Grief on
-1.380759	Guided by
-1.380759	Heart, unto
-1.380759	Heave up
-1.380759	Heaven I
-1.380759	Heaven, seems
-1.380759	Hell tormenting
-1.380759	His Wit
-1.380759	Hopes fill'd
-1.681789	How I
-1.681789	How my
-2.584879	I a
-2.584879	I am
-2.584879	I at
-2.584879	I be
-2.584879	I been
-2.584879	I blush,
-2.584879	I direct
-2.584879	I do,
-2.584879	I have
-2.584879	I may
-2.584879	I not
-2.584879	I pray,
-2.584879	I say:
-2.584879	I scape
-2.584879	I shall
-2.584879	I were
-1.380759	If you
-1.380759	Imploy thy
-1.380759	In murmuring
-1.085406	It hath	-0.3772871
-2.079729	It is
-2.079729	It neither
-2.079729	It seeth
-1.681789	Let all
-1.681789	Let not
-1.380759	Life, no
-1.681789	Like as
-1.681789	Like to
-1.982819	Love forbear,
-1.982819	Love plead
-1.982819	Love was
-1.982819	Love withall;
-1.380759	Love. Love
-1.85788	Lovers Souls
-1.85788	Lovers hearts,
-1.85788	Lovers tears
-1.380759	Loves Melancholy
-1.380759	Maid a
-1.380759	Maid; And
-1.380759	Malice obstruct
-1.380759	Matrimonial strife.
-1.380759	May rebels
-1.380759	Melancholy thoughts,
-1.380759	Men sure
-1.380759	Mistriss stay,
-1.380759	Musick pierc'd
-1.681789	My Names
-1.681789	My heart
-1.380759	Name in
-1.380759	Names inscrib'd
-1.380759	Nations. </s>
-1.380759	No substance,
-1.380759	Noble Company,
-1.380759	Nor yet
-1.380759	Not be
-1.85788	O How
-1.85788	O Love
-1.85788	O had
-1.380759	Of Lovers
-0.9884964	Or else
-1.982819	Or gazing,
-1.982819	Or shun
-1.380759	Planet got,
-1.380759	Poets fire
-1.380759	Prayers I
-1.380759	Sisters, not
-1.380759	Some being
-1.380759	Soul where
-1.380759	Souls shall
-1.380759	Speech be
-1.380759	Spight, nor
-1.380759	Stage to
-1.380759	Starrs may
-1.380759	Sun should
-1.380759	Sun, when
-1.380759	Sun; Heave
-1.380759	Sute, and
-1.380759	Sweet Beauty,
-1.231534	That every
-2.225857	That hears
-2.225857	That neither
-2.225857	That the
-1.231534	That thou	-0.4131762
-1.380759	The spangled
-1.85788	Then bow
-1.85788	Then might
-1.85788	Then why
-1.380759	This Noble
-1.681789	Thou God
-1.681789	Thou absolute
-1.380759	Throne shall
-1.380759	Through Ears
-1.85788	Thy Charriot
-1.85788	Thy Eyes
-1.85788	Thy Lovers
-1.380759	Time may
-0.8635576	To be
-1.85788	To bless
-1.380759	Tower, That
-1.380759	Unless I
-1.380759	Upon the
-1.380759	Virtuous honour
-1.380759	Well, I
-1.681789	Which are
-1.681789	Which through
-1.380759	Why do
-1.982819	Wit be
-1.982819	Wit like
-1.982819	Wit to
-1.982819	Wit with
-1.681789	Yet so,
-1.681789	Yet superstitiously,
-1.380759	Your Godhead
-2.422152	a Couch,
-2.422152	a bold
-2.422152	a busling
-2.422152	a foot-stool
-2.422152	a glorious
-2.422152	a man
-2.422152	a modest
-2.422152	a noble
-2.422152	a shadow
-2.422152	a trumpet
-2.422152	a voice●
-1.380759	about two
-1.380759	absolute Beauty,
-1.380759	admire, No
-1.380759	adoration; It
-1.380759	adore, As
-1.380759	after your
-1.380759	age may
-1.380759	ake when
-1.681789	all gazing,
-1.681789	all my
-1.85788	am But
-1.85788	am I
-1.85788	am by
-1.380759	amaz'd, know
-2.380759	and Blind,
-2.380759	and Chast,
-2.380759	and Death
-2.380759	and Dumb,
-2.380759	and feast
-2.380759	and glory
-2.380759	and if
-2.380759	and some
-2.380759	and triumph
-2.380759	and wife,
-1.380759	answer Love
-1.380759	appear Like
-1.380759	approve my
-1.681789	are deifi'd,
-1.681789	are the
-2.079729	as if
-2.079729	as thy
-2.079729	as to
-1.085406	as when
-1.380759	at this
-1.380759	attend you,
-2.45994	be Love.
-2.45994	be crost,
-2.45994	be deny'd,
-2.45994	be disturb'd
-2.45994	be in
-2.45994	be lost,
-2.45994	be made;
-2.45994	be sixt,
-2.45994	be slrung,
-2.45994	be so
-2.45994	be stuck
-2.45994	be tun'd
-1.380759	bearing, nor
-1.380759	been born
-1.380759	before thy
-1.982819	being amaz'd,
-1.982819	being solemn,
-1.982819	being the
-1.982819	being worship'd,
-1.380759	bind him,
-1.380759	bless my
-1.380759	blow, And
-1.380759	blush, weep,
-1.380759	bodyes fly,
-1.380759	bold immodesty;
-1.380759	born both
-1.380759	both Deaf
-1.380759	bow my
-1.380759	brain; And
-1.380759	brazen Tower,
-1.380759	break, and
-1.380759	breed, But
-1.380759	brest; And
-1.380759	busling noise,
-1.681789	but a
-1.681789	but thy
-2.079729	by Fame,
-2.079729	by Matrimonial
-2.079729	by Virtuous
-2.079729	by a
-2.079729	by large
-1.380759	cause, And
-1.380759	censure me
-1.380759	chief Goddess,
-1.380759	choice? If
-1.380759	clear light.
-1.380759	confident to
-1.380759	crost, Nor
-1.380759	cruelty, Either
-1.380759	dark Clouds
-1.380759	dear sake,
-1.380759	decide the
-1.380759	defend you.
-1.380759	deifi'd, Your
-1.380759	delight, Not
-1.380759	deny'd, My
-1.380759	desire. Great
-1.380759	despis'd, But
-1.380759	destructed by
-1.380759	devour; And
-1.681789	did appear
-1.681789	did woo!
-1.380759	direct to
-1.380759	dishonesty, As
-1.380759	distress; Thou
-1.380759	disturb'd with
-1.681789	do implore,
-1.681789	do you
-1.380759	do, How
-1.380759	door, Which
-1.681789	doth ake
-1.681789	doth recide.
-1.380759	drawn before
-1.982819	each brain;
-1.982819	each man
-0.9884964	each several
-1.681789	else through
-1.681789	else will
-1.380759	entertain This
-1.380759	eternally: Let
-1.380759	even sense
-2.158911	every Ear
-2.158911	every Ear,
-2.158911	every Ear;
-2.158911	every age
-2.158911	every hearing
-2.158911	every passion
-1.681789	fair Maid;
-1.681789	fair O
-1.380759	fall on
-1.380759	fall, It
-1.380759	fan thy
-1.380759	favour me;
-1.380759	favour, help
-1.380759	fear the
-1.380759	feast each
-1.380759	feed with
-1.380759	figure of
-1.380759	fill'd full,
-1.380759	fire may
-1.380759	fly, For
-1.380759	foot-stool shall
-2.079729	for mad,
-2.079729	for thy
-0.2218488	for to
-1.380759	forbear, use
-1.380759	foul malicious
-1.681789	from Heart,
-1.681789	from their
-1.380759	full, then
-1.380759	gaze upon
-1.681789	gazing, And
-1.681789	gazing, or
-1.380759	gentle sighs,
-1.380759	giv't a
-0.6874664	give me
-1.380759	gives, nor
-1.380759	glorious Throne
-1.380759	glory in
-1.380759	glow: Loves
-1.380759	good wishes
-1.380759	got, Or
-1.380759	greater light.
-1.380759	guide my
-1.380759	had I
-1.380759	hands heav'd
-1.380759	hands, as
-0.6874664	hath no
-1.380759	have woo'd,
-1.380759	he spake,
-1.380759	hear: That
-1.380759	hearing door,
-1.380759	hears no
-1.982819	heart doth
-1.982819	heart his
-1.982819	heart those
-1.982819	heart will
-1.380759	hearts, a
-1.380759	heav'd up,
-1.380759	heavy taxes
-1.380759	help me
-1.380759	here, Upon
-1.380759	hide. Grief
-1.380759	highly priz'd;
-1.380759	him here,
-1.380759	him, or
-1.982819	his heavy
-1.982819	his person
-1.982819	his person,
-1.982819	his valour,
-1.380759	honour highly
-1.85788	if I
-1.85788	if not
-1.85788	if their
-1.380759	ignorance each
-1.380759	immodesty; Well,
-1.380759	implore, That
-1.380759	implore; And
-2.335002	in a
-2.335002	in distress;
-2.335002	in its
-2.335002	in measure
-2.335002	in my
-2.335002	in some
-2.335002	in the
-2.335002	in thy
-2.335002	in your
-1.380759	inscrib'd to
-1.380759	instructions wise:
-1.380759	invite thy
-1.681789	is Deaf
-1.681789	is no
-1.85788	it devour;
-1.85788	it plain,
-1.85788	it shine
-1.380759	its own
-1.380759	joy and
-1.380759	keep me
-1.380759	knee, as
-1.380759	know not
-1.380759	laid, For
-1.681789	large brazen
-1.681789	large strong
-1.380759	laws; Or
-1.380759	layes; Which
-1.380759	leave for
-2.158911	let each
-2.158911	let it
-2.158911	let my
-2.158911	let not
-2.158911	let the
-2.158911	let their
-1.380759	liberty. Great
-1.380759	lies, It
-1.380759	life your
-1.380759	light toyes:
-1.85788	light. </s>
-1.85788	light. Great
-1.85788	light. Sweet
-2.158911	like Clouds
-2.158911	like Yet
-1.164588	like a
-2.158911	like various
-2.158911	like whispering
-1.380759	live eternally:
-1.380759	lost, For
-1.380759	love implore;
-1.380759	ly. Thy
-1.380759	mad, if
-1.380759	made; A
-1.380759	malicious spight.
-1.85788	man and
-1.85788	man did
-1.85788	man was
-1.380759	marble brest;
-1.380759	marriage laws;
-2.335002	may defend
-2.335002	may gaze
-2.335002	may glow:
-2.335002	may hear:
-2.335002	may in
-2.335002	may it
-2.335002	may not
-2.335002	may see,
-2.335002	may succeed.
-2.158911	me for
-1.164588	me in
-2.158911	me leave
-2.158911	me liberty.
-2.158911	me of
-1.380759	me; Unless
-1.380759	measure move,
-1.380759	memory; And
-1.380759	might I
-1.380759	mind; His
-1.380759	modest Maid
-1.380759	move, And
-1.380759	murmuring streams,
-2.760971	my Act
-2.760971	my Ear,
-2.760971	my Eyes,
-2.760971	my Face
-2.760971	my Love
-2.760971	my Name
-2.760971	my Prayers
-2.760971	my Sisters,
-2.760971	my Speech
-2.760971	my Sute,
-1.766648	my Wit
-2.760971	my chief
-2.760971	my choice?
-2.760971	my good
-2.760971	my hands,
-0.90309	my heart
-2.760971	my knee,
-2.760971	my tongue,
-1.766648	my words
-2.760971	my words,
-1.380759	neer; Fame
-1.681789	neither Spight,
-1.681789	neither gives,
-1.380759	night, Like
-2.225857	no Life,
-2.225857	no Soul
-2.225857	no dark
-2.225857	no hands
-2.225857	no praise,
-2.225857	no solid
-2.225857	no tongue
-1.380759	noble worthy
-1.380759	noise, Or
-2.079729	nor Time
-2.079729	nor adoration;
-2.079729	nor my
-2.079729	nor takes
-2.079729	nor tears
-2.283849	not Malice
-2.283849	not To
-2.283849	not despis'd,
-2.283849	not my
-2.283849	not one
-2.283849	not rob
-2.283849	not this
-2.283849	not to
-1.380759	obey, But
-1.380759	observing some
-1.380759	obstruct my
-2.422152	of Eloquence,
-2.422152	of bearing,
-2.422152	of dishonesty,
-2.422152	of his
-2.422152	of marriage
-2.422152	of night,
-2.422152	of spight,
-2.422152	of sweet
-2.422152	of the
-2.422152	of these
-2.422152	of your
-2.158911	on a
-2.158911	on even
-2.158911	on my
-2.158911	on their
-2.158911	on thy
-2.158911	on to
-1.380759	on, fair
-1.380759	one word
-1.380759	open every
-1.85788	or give
-1.85788	or observing
-1.85788	or yet
-1.380759	out of
-1.380759	own clear
-1.380759	oyld with
-1.380759	part to
-1.681789	passion lies,
-1.681789	passion may
-1.380759	payes. Dear
-1.380759	person did
-1.380759	person, like
-1.380759	pierc'd my
-1.380759	plac'd; Then
-1.380759	place my
-1.380759	plain, that
-1.380759	plead my
-1.380759	pleasant were
-1.380759	praise, nor
-1.380759	pray giv't
-1.380759	pray, But
-1.380759	praysing: Drawn
-1.380759	priz'd; Because
-1.380759	prove by
-1.380759	publick Stage
-1.380759	pure, and
-1.380759	rather joy
-1.380759	rebels prove
-1.380759	rebound; And
-1.380759	recide. Thou
-1.380759	repent, Or
-1.380759	repose, being
-1.380759	represent, But
-1.380759	rest, In
-1.380759	rising Sun;
-1.380759	rob you
-1.380759	runs with
-1.380759	sake, Of
-1.380759	say: Yet
-1.380759	scape this
-1.380759	see, My
-1.380759	seeming like
-1.380759	seems but
-1.380759	seeth no
-1.380759	sense be
-1.380759	set, The
-1.85788	several Ear
-1.85788	several Nations.
-1.85788	several word
-1.380759	shadow you
-2.283849	shall adore,
-2.283849	shall attend
-1.289526	shall be
-2.283849	shall blow,
-2.283849	shall from
-2.283849	shall set,
-2.283849	shall thy
-1.380759	shapt Commendations,
-1.380759	shine in
-1.681789	should I
-1.681789	should trouble
-1.380759	shun the
-1.380759	sighs, like
-1.380759	sight Did
-1.380759	sight; For
-1.380759	sixt, as
-1.380759	slrung, And
-1.681789	so confident
-1.681789	so guide
-1.380759	so, as
-1.380759	soft, with
-1.380759	solemn, and
-1.380759	solid Body
-1.85788	some light
-1.85788	some pleasant
-1.85788	some unlucky
-1.380759	sound, Through
-1.380759	spake, his
-1.380759	spangled Heaven,
-1.380759	speak the
-1.681789	spight, But
-1.681789	spight, Thy
-1.380759	spight. For
-1.380759	spotless, pure,
-1.380759	stand, and
-1.380759	stay, that
-1.380759	streams, fall
-1.380759	strife. And
-1.380759	strong well
-1.380759	stuck with
-1.380759	subject to
-1.380759	substance, but
-1.380759	succeed. O
-1.380759	superstitiously, I
-1.380759	sure will
-1.380759	sweet Wit
-1.380759	takes instructions
-1.380759	tax me
-1.681789	taxes layes;
-1.681789	taxes payes.
-1.681789	tears for
-1.681789	tears that
-2.225857	that Death
-2.225857	that I
-2.225857	that Poets
-2.225857	that every
-2.225857	that fall,
-2.225857	that is
-2.225857	that runs
-2.526887	the Dance
-2.526887	the Ears:
-2.526887	the Eyes
-2.526887	the Gods
-2.526887	the Sun
-2.526887	the Sun,
-2.526887	the cause,
-2.526887	the figure
-2.526887	the greater
-2.526887	the large
-2.526887	the publick
-2.526887	the rising
-2.526887	the truth
-2.526887	the wooing
-1.681789	thee a
-1.681789	thee to
-1.380759	thee, That
-0.9884964	their Ears
-1.982819	their bodyes
-1.982819	their sight
-1.681789	then his
-1.681789	then laid,
-1.380759	these Starrs
-1.380759	they light.
-1.380759	think I
-1.85788	this Hell
-1.85788	this cruelty,
-1.85788	this time
-1.380759	those taxes
-1.85788	thou in
-0.8635576	thou wilt
-1.380759	thoughts, like
-1.681789	through ignorance
-1.681789	through my
-2.422152	thy Cheeks,
-2.422152	thy Counterfeit;
-2.422152	thy Curtains,
-2.422152	thy dear
-2.422152	thy favour,
-2.422152	thy love
-2.422152	thy marble
-2.422152	thy memory;
-2.422152	thy rest,
-2.422152	thy sight;
-2.422152	thy subject
-1.380759	till on
-1.380759	time do
-2.636032	to Heaven
-2.636032	to answer
-2.636032	to decide
-2.636032	to entertain
-1.641709	to every
-2.636032	to favour
-2.636032	to invite
-2.636032	to live
-2.636032	to ly.
-2.636032	to obey,
-2.636032	to represent,
-2.636032	to speak
-2.636032	to stand,
-1.641709	to the
-2.636032	to thee,
-2.636032	to woo
-1.380759	tongue to
-1.380759	tongue, Let
-1.380759	tongues, that
-1.380759	tormenting mind;
-1.380759	toyes: But
-1.380759	triumph on,
-1.380759	trouble out
-1.380759	trumpet sound,
-1.380759	truth of
-1.380759	tun'd to
-1.380759	two several
-1.380759	unlucky Planet
-1.380759	unto the
-1.380759	up my
-1.380759	up, nor
-1.380759	upon you,
-1.380759	use not
-1.380759	valour, like
-1.380759	various Musick
-1.380759	view my
-1.380759	voice● </s>
-1.380759	want of
-1.681789	was plac'd;
-1.681789	was spotless,
-1.380759	weary on
-1.380759	weep, or
-1.380759	well shapt
-1.85788	were And
-1.85788	were neer;
-1.85788	were thy
-2.158911	when fair
-2.158911	when he
-2.158911	when no
-2.158911	when think
-2.158911	when to
-2.158911	when weary
-1.380759	where passion
-1.380759	which my
-1.380759	whispering winds
-1.380759	why should
-1.380759	wife, May
-1.982819	will break,
-1.982819	will censure
-1.982819	will hide.
-1.982819	will tax
-1.681789	wilt keep
-1.681789	wilt open
-1.380759	winds shall
-1.380759	wise: It
-1.380759	wishes shall
-2.225857	with Eloquent
-2.225857	with Eyes
-2.225857	with Hopes
-2.225857	with delight,
-2.225857	with foul
-2.225857	with praysing:
-2.225857	with spight,
-1.380759	withall; It
-1.681789	woo Beauty,
-1.681789	woo him
-1.380759	woo! To
-1.380759	woo'd, yet
-1.380759	wooing part
-1.681789	word I
-1.681789	word may
-1.681789	words be
-1.681789	words on
-1.380759	words, till
-1.380759	worship'd, you
-1.380759	worthy man
-1.380759	write it
-1.85788	yet am
-1.85788	yet destructed
-1.85788	yet repent,
-2.158911	you admire,
-2.158911	you approve
-2.158911	you are
-2.158911	you desire.
-2.158911	you of
-2.158911	you woo
-1.681789	you, That
-1.681789	you, Then
-1.380759	you. Great
-1.982819	your Beauty
-1.982819	your Children
-1.982819	your breed,
-1.982819	your life

\3-grams:
-0.1760913	It hath no
-0.1760913	That thou wilt

\end\
